tree
version=v2
num_class=1
num_tree_per_iteration=1
label_index=0
max_feature_idx=7
objective=binary sigmoid:1
feature_names=fea0 fea1 fea2 fea3 fea4 fea5 fea6 fea7
feature_infos=1:0 [0:3742106] 41:0:26:29:2:25:23:27:7:31:28:1:32:35:37:33:39:38:36:34:5:40:19:22:16:21:17:18:15:6:14:20:10:12 [1:19280895] 1:0 1:0 1:0 1:0
tree_sizes=1181 1222 1209 1253 1220 1246 1240 1247 1243 1242

Tree=0
num_leaves=15
num_cat=9
split_feature=0 2 3 7 2 4 3 3 5 4 3 5 3 4
split_gain=5268.46 4451.04 3235.98 983.356 840.38 621.525 409.073 316.037 188.042 153.5 132.787 112.145 106.672 130.837
threshold=0 1 1235192.5000000002 2 3 4 111795.50000000001 10809.500000000002 5 6 1560.5000000000002 7 101479.00000000001 8
decision_type=1 5 2 1 5 1 2 2 1 1 2 1 2 1
left_child=1 7 3 8 12 -5 -7 -1 10 -9 -3 -8 13 -2
right_child=4 2 -4 5 -6 6 11 9 -10 -11 -12 -13 -14 -15
leaf_value=-3.5808149552166695 -3.6270038682792207 -3.4779503237716134 -3.4660099271567195 -3.5714991004001129 -3.6377072062050155 -3.6312867725073135 -3.619892016639441 -3.5442806372504139 -3.5495595203300416 -3.59932141435949 -3.6031182834930338 -3.4887552617138615 -3.6328959195099273 -3.4826324635465875
leaf_count=5062 35364 34 498 747 233410 70318 14498 204 289 17519 4267 26 17739 25
internal_value=0 1.15386 0.515753 0.429454 -0.45229 0.276897 0.226454 3.62108 3.27416 3.28726 2.94317 1.19032 0.263747 0.465859
internal_count=400000 113462 90677 90179 286538 85589 84842 22785 4590 17723 4301 14524 53128 35389
cat_boundaries=0 1 3 4 6 7 8 9 10 11
cat_threshold=2 209715200 512 2 66 513 2 1 2 1 1
shrinkage=1


Tree=1
num_leaves=15
num_cat=7
split_feature=0 2 7 2 4 1 1 1 1 5 1 5 1 1
split_gain=5127.3 4146.3 1185.8 829.972 690.748 455.067 1371.3 254.756 305.755 176.019 142.921 161.77 135.984 121.822
threshold=0 1 2 3 4 1807080.5000000002 2032142.5000000002 1807080.5000000002 2032142.5000000002 5 49393.000000000007 6 70088.000000000015 51986.500000000007
decision_type=1 5 1 5 1 2 2 2 2 1 2 1 2 2
left_child=1 -1 7 -2 12 10 -7 9 -9 -3 -6 13 -4 -12
right_child=3 2 4 -5 5 6 -8 8 -10 -11 11 -13 -14 -15
leaf_value=0.034631537047301403 0.0026044337294260679 0.026584253631232627 0.032778015151815117 -0.0061210796175926591 -0.00053235764349242353 0.14754273376039964 0.01200830234553419 0.14786781769292187 0.045474500615973537 0.075985019418205749 0.02483189376127104 0.10275066056021748 0.084029771214581148 0.0039439215317216272
leaf_count=22785 53128 3916 358 233410 43739 286 2740 140 389 286 1145 64 423 37191
internal_value=0 1.12947 0.507914 -0.449711 0.338595 0.282917 2.65491 3.52894 7.52004 3.0105 0.193514 0.473603 6.06431 0.456563
internal_count=400000 113462 90677 286538 85946 85165 3026 4731 529 4202 82139 38400 781 38336
cat_boundaries=0 1 3 4 6 7 8 9
cat_threshold=2 209715200 512 2 66 513 2 1 1
shrinkage=0.01


Tree=2
num_leaves=15
num_cat=9
split_feature=2 7 3 4 3 7 3 1 5 4 1 5 2 4
split_gain=3081.15 1553.3 864.825 725.117 516.191 399.588 382.426 334.509 205.612 184.074 178.248 153.188 129.913 126.225
threshold=0 1 1235192.5000000002 2 706722.00000000012 3 98428.000000000015 1807080.5000000002 4 5 49393.000000000007 6 7 8
decision_type=5 1 2 1 2 1 2 2 1 1 2 1 5 1
left_child=5 4 3 -3 8 10 9 -4 -2 -7 -1 12 -5 -8
right_child=1 2 7 11 -6 6 13 -9 -10 -11 -12 -13 -14 -15
leaf_value=0.10165014369403502 0.020936014661382486 0.052921053027818021 0.0022904395273241136 -0.0043891381364193193 0.12149537529143142 0.013948773571229717 0.0036137198215548359 0.074303295238033876 0.070602667146593218 0.10123120401891665 0.035656402469699977 0.059188514063450985 -0.0015042561035489644 0.10623789394664765
leaf_count=173 6391 816 376 233271 172 48951 20054 692 303 86 1300 144 87228 43
internal_value=0 -0.25686 -0.322167 -0.341991 2.64322 1.17981 1.11666 5.09074 2.34256 1.4116 4.35092 -0.358019 -0.361067 0.385556
internal_count=400000 329393 322527 321459 6866 70607 69134 1068 6694 49037 1473 320643 320499 20097
cat_boundaries=0 2 3 4 5 6 7 8 10 11
cat_threshold=32832 512 2 2 2 1 1 1 272695297 506 1
shrinkage=0.01


Tree=3
num_leaves=15
num_cat=5
split_feature=0 2 3 7 2 3 3 1 3 1 5 3 1 1
split_gain=4975.34 3770.31 2093.85 832.788 798.837 418.412 266.166 126.747 268.041 149.193 117.693 117.316 148.881 108.618
threshold=0 1 1235192.5000000002 2 3 111795.50000000001 10809.500000000002 660849.00000000012 281959.50000000006 128480.00000000001 4 182741.00000000003 2142578.0000000005 50168.000000000007
decision_type=1 5 2 1 5 2 2 2 2 2 1 2 2 2
left_child=1 6 3 10 -2 -5 13 8 -7 -10 -3 -8 -13 -1
right_child=4 2 -4 5 -6 7 11 -9 9 -11 -12 12 -14 -15
leaf_value=0.040146348047312916 0.0024425550695141972 0.064076630728242198 0.11298079277487501 0.00072047452608060077 -0.0060824225928598485 0.014756171013642802 0.028091064951517596 0.0072735687552175085 0.012077764419043313 0.078246585831769036 0.026551364347851401 0.055636487074533621 0.0155910319672641 0.060210724625433525
leaf_count=3737 53128 289 498 70908 233410 5729 15992 8329 194 429 4301 1258 473 1325
internal_value=0 1.10313 0.50214 0.419922 -0.446846 0.274117 3.2719 1.23494 1.90176 5.78803 2.92445 2.97169 4.47435 4.54174
internal_count=400000 113462 90677 90179 286538 85589 22785 14681 6352 623 4590 17723 1731 5062
cat_boundaries=0 1 3 4 6 7
cat_threshold=2 209715200 512 2 66 513 2
shrinkage=0.01


Tree=4
num_leaves=15
num_cat=8
split_feature=2 7 4 3 3 7 3 1 5 4 1 5 2 3
split_gain=2913.81 1442.89 778.43 677.465 369.081 349.899 354.824 237.999 160.389 154.222 142.597 141.295 129.768 115.234
threshold=0 1 2 1235192.5000000002 706722.00000000012 3 98428.000000000015 1807080.5000000002 4 5 53158.000000000007 6 7 1560.5000000000002
decision_type=5 1 1 2 2 1 2 2 1 1 2 1 5 2
left_child=5 4 -3 11 8 10 9 -5 -2 -7 -1 12 -4 -10
right_child=1 2 3 7 -6 6 -8 -9 13 -11 -12 -13 -14 -15
leaf_value=0.087297995471755221 0.061156223047533105 0.052258019663789818 -0.0043463875844577237 0.002167864721837658 0.09720631180634863 0.088620410729971871 0.0037049192502350402 0.062059060778906272 0.11415121315797948 0.013358089398551067 0.032784983763170024 0.054837265774080976 -0.0014538444275171158 0.01911447504176245
leaf_count=183 303 848 233533 375 172 86 20097 661 43 48951 1290 144 86966 6348
internal_value=0 -0.253183 -0.317924 -0.335449 2.4769 1.13233 1.07245 4.33715 2.20744 1.35166 4.00093 -0.353601 -0.356643 1.98232
internal_count=400000 329393 322527 321679 6866 70607 69134 1036 6694 49037 1473 320643 320499 6391
cat_boundaries=0 2 3 4 5 6 7 8 10
cat_threshold=32832 512 2 2 2 2 2 1 273219585 506
shrinkage=0.01


Tree=5
num_leaves=15
num_cat=6
split_feature=0 2 3 7 2 4 3 3 3 7 1 3 1 3
split_gain=4978.57 3482.55 1437.24 838.813 776.589 465.497 343.295 218.841 141.238 114.46 112.391 210.161 104.112 100.671
threshold=0 1 1235192.5000000002 2 3 4 111795.50000000001 9245.5000000000018 8959.0000000000018 5 660849.00000000012 281959.50000000006 41264.500000000007 182741.00000000003
decision_type=1 5 2 1 5 1 2 2 2 1 2 2 2 2
left_child=1 7 3 -3 9 -5 -7 8 -1 -2 11 -8 -10 -9
right_child=4 2 -4 5 -6 6 10 13 12 -11 -12 -13 -14 -15
leaf_value=0.042233258387117702 0.0020927213556884866 0.02890687614146701 0.08668991319493223 0.047704547929684288 -0.0060684991943226862 0.00053987773734927693 0.013489717390645582 0.027602868388400047 0.045241984367552834 0.034608129020912572 0.0062485966530418302 0.050970010671166993 0.15886859198727313 0.042483643383129516
leaf_count=3949 52175 4569 506 735 233900 70246 5738 17072 50 401 8213 620 62 1764
internal_value=0 1.09803 0.511391 0.437174 -0.446673 0.287503 0.239272 3.12555 4.40895 0.233693 1.10914 1.72963 10.8863 2.90079
internal_count=400000 113524 90627 90121 286476 85552 84817 22897 4061 52576 14571 6358 112 18836
cat_boundaries=0 1 3 4 6 7 8
cat_threshold=2 209715200 512 2 262144 513 2 1
shrinkage=0.01


Tree=6
num_leaves=15
num_cat=9
split_feature=0 2 3 7 2 4 3 3 3 7 2 2 3 5
split_gain=4848.2 3262.41 1289.43 794.37 767.108 433.959 331.944 193.952 114.252 108.081 100.424 97.772 94.0879 92.4952
threshold=0 1 1235192.5000000002 2 3 4 111795.50000000001 9245.5000000000018 8959.0000000000018 5 6 7 20722.500000000004 8
decision_type=1 5 2 1 5 1 2 2 2 1 5 5 2 1
left_child=1 7 3 13 9 -5 10 8 -1 12 -7 -6 -2 -3
right_child=4 2 -4 5 11 6 -8 -9 -10 -11 -12 -13 -14 -15
leaf_value=0.0401769461816298 0.0049072515121311427 0.025419909691676245 0.079301034295462008 0.045159109751446859 -0.0069648077429964664 0.0086524138241184118 0.010864438373887652 0.027940357051904376 0.097143542740667832 0.033156444152836979 -0.00016787042770459223 -0.0040657501299039122 -0.00038818300493404293 0.056086289795567838
leaf_count=3949 23997 4272 506 735 159050 5178 14571 18836 112 401 65068 74850 28178 297
internal_value=0 1.0756 0.503743 0.430955 -0.444105 0.28382 0.236322 3.00403 4.18649 0.230838 0.0534204 -0.604276 0.206767 2.78471
internal_count=400000 113524 90627 90121 286476 85552 84817 22897 4061 52576 70246 233900 52175 4569
cat_boundaries=0 1 3 4 6 7 8 10 11 12
cat_threshold=2 209715200 512 2 262144 513 2 1 2720170150 1 129 1
shrinkage=0.01


Tree=7
num_leaves=15
num_cat=7
split_feature=0 2 3 2 7 4 3 1 3 1 7 1 3 2
split_gain=4722.66 3060.84 1168.79 757.731 733.239 406.602 306.319 197.156 172.774 116.387 102.211 98.2417 195.54 97.7778
threshold=0 1 706722.00000000012 2 3 4 111795.50000000001 128480.00000000001 9245.5000000000018 376059.50000000006 5 660849.00000000012 281959.50000000006 6
decision_type=1 5 2 5 1 1 2 2 2 2 1 2 2 5
left_child=1 8 4 10 -3 -6 13 -4 -1 -9 -2 12 -8 -7
right_child=3 2 7 -5 5 6 11 9 -10 -11 -12 -13 -14 -15
leaf_value=0.039843331519891355 0.002042934831529728 0.02651657432490875 0.0099254826858106923 -0.0060170401356195195 0.042857668259844307 0.0085066527290821141 0.012941524250728229 0.18695385562298802 0.026940831014789772 0.074784737792546047 0.031811410848680603 0.0059707992580529182 0.052081947116408678 -0.0001662280758428864
leaf_count=4061 52175 4559 165 233900 735 5178 5738 28 18836 478 401 8194 484 65068
internal_value=0 1.05396 0.496316 -0.441546 0.418239 0.275405 0.228473 6.75796 2.8908 7.91902 0.22802 1.04556 1.62558 0.0529073
internal_count=400000 113524 90627 286476 89956 85397 84662 671 22897 506 52576 14416 6222 70246
cat_boundaries=0 1 3 5 6 7 8 10
cat_threshold=2 209715200 512 262144 513 2 2 1 2720170150 1
shrinkage=0.01


Tree=8
num_leaves=15
num_cat=8
split_feature=0 2 3 2 4 3 5 1 3 5 2 2 3 3
split_gain=4601.24 2875.95 1067.83 748.41 622.635 466.915 257.321 167.679 154.623 118.426 107.916 97.9439 91.0182 89.7343
threshold=0 1 706722.00000000012 2 3 111795.50000000001 4 128480.00000000001 9245.5000000000018 5 6 7 8959.0000000000018 2474.5000000000005
decision_type=1 5 2 5 1 2 1 2 2 1 5 5 2 2
left_child=1 8 4 13 -3 6 10 -4 12 -7 -6 -5 -1 -2
right_child=3 2 7 11 5 9 -8 -9 -10 -11 -12 -13 -14 -15
leaf_value=0.036508520134681699 0.014703160999764665 0.03901885155954999 0.0097349070611304177 -0.0069207564311151541 0.01050713428847347 0.012252745413305651 0.046327929061587655 0.072996420606612947 0.026002738527026559 0.071266834240825569 0.00021518226617251891 -0.0040052001943773549 0.084260636904367539 0.0017375705693949525
leaf_count=3949 2119 1520 165 159050 3831 15910 351 506 18836 89 68255 74801 112 50506
internal_value=0 1.03299 0.48903 -0.438987 0.412422 0.335096 0.114409 6.29257 2.78499 1.27229 0.0832419 -0.599209 3.7997 0.224863
internal_count=400000 113524 90627 286476 89956 88436 72437 671 22897 15999 72086 233851 4061 52625
cat_boundaries=0 1 3 5 6 7 8 9 10
cat_threshold=2 209715200 512 294912 513 2 1 1 2717941766 129
shrinkage=0.01


Tree=9
num_leaves=15
num_cat=9
split_feature=0 2 3 2 7 4 3 3 5 2 7 3 2 3
split_gain=4484 2705.81 987.291 739.243 678.384 360.019 274.744 138.926 108.663 97.5888 95.9133 91.3461 87.6062 83.2385
threshold=0 1 621044.00000000012 2 3 4 57432.000000000007 9245.5000000000018 5 6 7 20722.500000000004 8 182741.00000000003
decision_type=1 5 2 5 1 1 2 2 1 5 1 2 5 2
left_child=1 7 4 10 -3 -6 12 -1 -8 -5 11 -2 -7 -9
right_child=3 2 -4 9 5 6 8 13 -10 -11 -12 -13 -14 -15
leaf_value=0.036301896209752035 0.0047683897406650367 0.02510652785404896 0.055671798421976018 -0.0068970735375372674 0.038937985628874731 0.0083732336952425986 0.0081627614960823776 0.023898782584327379 0.10146578018411387 -0.0039804828233031102 0.030315990114160609 -0.00043024314331073163 -0.00055002462852251103 0.036677963693617317
leaf_count=4061 24016 4539 835 159050 735 4221 20283 17072 32 74801 403 28206 59982 1764
internal_value=0 1.01269 0.481917 -0.436438 0.401304 0.262199 0.216492 2.68586 0.838146 -0.596632 0.222135 0.198833 0.010162 2.51206
internal_count=400000 113524 90627 286476 89792 85253 84518 22897 20315 233851 52625 52222 64203 18836
cat_boundaries=0 1 3 5 6 7 8 9 10 11
cat_threshold=2 209715200 512 294912 513 2 2 1 129 1 2686484646
shrinkage=0.01


end of trees

feature importances:
online=42
corner_sign=27
fans=21
is_fans=15
silver_flag=14
gold_flag=13
interest=8

parameters:
[boosting: gbdt]
[objective: binary]
[metric: binary_logloss]
[tree_learner: serial]
[device_type: cpu]
[data: ]
[valid: ]
[num_iterations: 100]
[learning_rate: 0.01]
[num_leaves: 15]
[num_threads: 0]
[max_depth: -1]
[min_data_in_leaf: 20]
[min_sum_hessian_in_leaf: 0.001]
[bagging_fraction: 0.8]
[bagging_freq: 5]
[bagging_seed: 3]
[feature_fraction: 0.9]
[feature_fraction_seed: 2]
[early_stopping_round: 0]
[max_delta_step: 0]
[lambda_l1: 0]
[lambda_l2: 0]
[min_gain_to_split: 0]
[drop_rate: 0.1]
[max_drop: 50]
[skip_drop: 0.5]
[xgboost_dart_mode: 0]
[uniform_drop: 0]
[drop_seed: 4]
[top_rate: 0.2]
[other_rate: 0.1]
[min_data_per_group: 100]
[max_cat_threshold: 32]
[cat_l2: 10]
[cat_smooth: 10]
[max_cat_to_onehot: 4]
[top_k: 20]
[monotone_constraints: ]
[feature_contri: ]
[forcedsplits_filename: ]
[refit_decay_rate: 0.9]
[verbosity: 0]
[max_bin: 255]
[min_data_in_bin: 3]
[bin_construct_sample_cnt: 200000]
[histogram_pool_size: -1]
[data_random_seed: 1]
[output_model: LightGBM_model.txt]
[snapshot_freq: -1]
[input_model: ]
[output_result: LightGBM_predict_result.txt]
[initscore_filename: ]
[valid_data_initscores: ]
[pre_partition: 0]
[enable_bundle: 1]
[max_conflict_rate: 0]
[is_enable_sparse: 1]
[sparse_threshold: 0.8]
[use_missing: 1]
[zero_as_missing: 0]
[two_round: 0]
[save_binary: 0]
[enable_load_from_binary_file: 1]
[header: 0]
[label_column: ]
[weight_column: ]
[group_column: ]
[ignore_column: ]
[categorical_feature: ]
[predict_raw_score: 0]
[predict_leaf_index: 0]
[predict_contrib: 0]
[num_iteration_predict: -1]
[pred_early_stop: 0]
[pred_early_stop_freq: 10]
[pred_early_stop_margin: 10]
[convert_model_language: ]
[convert_model: gbdt_prediction.cpp]
[num_class: 1]
[is_unbalance: 0]
[scale_pos_weight: 1]
[sigmoid: 1]
[boost_from_average: 1]
[reg_sqrt: 0]
[alpha: 0.9]
[fair_c: 1]
[poisson_max_delta_step: 0.7]
[tweedie_variance_power: 1.5]
[max_position: 20]
[label_gain: ]
[metric_freq: 1]
[is_provide_training_metric: 0]
[eval_at: ]
[num_machines: 1]
[local_listen_port: 12400]
[time_out: 120]
[machine_list_filename: ]
[machines: ]
[gpu_platform_id: -1]
[gpu_device_id: -1]
[gpu_use_dp: 0]

end of parameters

pandas_categorical:[[0, 32, 59242682, 70233015, 83721561, 149472943, 233123820, 363685092, 402768952, 461957592, 859837652, 859939046, 860266415, 930302437, 963822879, 963823010, 963823141, 963823272, 963823403, 963823534, 963823665, 963823796, 963823927, 1144762020, 1329720718, 1499882458, 1501036078, 1667466512, 1667810080, 1697498220, 1727759575, 1783399405, 2004704761, 2006952852, 2009200943, 2011449034, 2013697125, 2015945216, 2018193307, 2020441398, 2022689489, 2058957926]]
